## LambdaMART
## No. of trees = 1000
## No. of leaves = 10
## No. of threshold candidates = 256
## Learning rate = 0.1
## Stop early = 100

<ensemble>
	<tree id="1" weight="0.1">
		<split>
			<feature> 102 </feature>
			<threshold> 0.39563522 </threshold>
			<split pos="left">
				<feature> 118 </feature>
				<threshold> 0.941176 </threshold>
				<split pos="left">
					<feature> 228 </feature>
					<threshold> 0.12804466 </threshold>
					<split pos="left">
						<feature> 234 </feature>
						<threshold> 0.6498861 </threshold>
						<split pos="left">
							<feature> 225 </feature>
							<threshold> 0.313726 </threshold>
							<split pos="left">
								<feature> 87 </feature>
								<threshold> 0.086274 </threshold>
								<split pos="left">
									<feature> 8 </feature>
									<threshold> 0.8930348 </threshold>
									<split pos="left">
										<feature> 179 </feature>
										<threshold> 0.764706 </threshold>
										<split pos="left">
											<output> -0.18169744 </output>
										</split>
										<split pos="right">
											<output> 0.75899684 </output>
										</split>
									</split>
									<split pos="right">
										<output> 1.3794199 </output>
									</split>
								</split>
								<split pos="right">
									<output> -0.7649239 </output>
								</split>
							</split>
							<split pos="right">
								<output> 1.0636564 </output>
							</split>
						</split>
						<split pos="right">
							<output> 1.1548386 </output>
						</split>
					</split>
					<split pos="right">
						<output> 1.3745967 </output>
					</split>
				</split>
				<split pos="right">
					<feature> 49 </feature>
					<threshold> 0.03403 </threshold>
					<split pos="left">
						<output> -2.0 </output>
					</split>
					<split pos="right">
						<output> -0.8611258 </output>
					</split>
				</split>
			</split>
			<split pos="right">
				<output> 1.9329838 </output>
			</split>
		</split>
	</tree>
	<tree id="2" weight="0.1">
		<split>
			<feature> 102 </feature>
			<threshold> 0.39563522 </threshold>
			<split pos="left">
				<feature> 9 </feature>
				<threshold> 0.7379772 </threshold>
				<split pos="left">
					<feature> 228 </feature>
					<threshold> 0.12804466 </threshold>
					<split pos="left">
						<feature> 87 </feature>
						<threshold> 0.078431 </threshold>
						<split pos="left">
							<feature> 234 </feature>
							<threshold> 0.61030775 </threshold>
							<split pos="left">
								<feature> 78 </feature>
								<threshold> 0.119522795 </threshold>
								<split pos="left">
									<output> -1.5864533 </output>
								</split>
								<split pos="right">
									<feature> 179 </feature>
									<threshold> 0.764706 </threshold>
									<split pos="left">
										<output> -0.22997355 </output>
									</split>
									<split pos="right">
										<output> 1.103405 </output>
									</split>
								</split>
							</split>
							<split pos="right">
								<feature> 135 </feature>
								<threshold> 0.388235 </threshold>
								<split pos="left">
									<output> 0.87202054 </output>
								</split>
								<split pos="right">
									<output> 1.8867625 </output>
								</split>
							</split>
						</split>
						<split pos="right">
							<output> -0.7380592 </output>
						</split>
					</split>
					<split pos="right">
						<output> 1.4494561 </output>
					</split>
				</split>
				<split pos="right">
					<feature> 7 </feature>
					<threshold> 0.0 </threshold>
					<split pos="left">
						<output> 1.6616963 </output>
					</split>
					<split pos="right">
						<output> 1.8722931 </output>
					</split>
				</split>
			</split>
			<split pos="right">
				<output> 1.740146 </output>
			</split>
		</split>
	</tree>
	<tree id="3" weight="0.1">
		<split>
			<feature> 118 </feature>
			<threshold> 0.916667 </threshold>
			<split pos="left">
				<feature> 9 </feature>
				<threshold> 0.7379772 </threshold>
				<split pos="left">
					<feature> 102 </feature>
					<threshold> 0.39563522 </threshold>
					<split pos="left">
						<feature> 228 </feature>
						<threshold> 0.12804466 </threshold>
						<split pos="left">
							<feature> 87 </feature>
							<threshold> 0.078431 </threshold>
							<split pos="left">
								<feature> 234 </feature>
								<threshold> 0.61030775 </threshold>
								<split pos="left">
									<feature> 58 </feature>
									<threshold> 0.0011066563 </threshold>
									<split pos="left">
										<output> 1.1046218 </output>
									</split>
									<split pos="right">
										<output> -0.4365672 </output>
									</split>
								</split>
								<split pos="right">
									<feature> 135 </feature>
									<threshold> 0.388235 </threshold>
									<split pos="left">
										<output> 0.93286127 </output>
									</split>
									<split pos="right">
										<output> 1.6944157 </output>
									</split>
								</split>
							</split>
							<split pos="right">
								<output> -0.74323833 </output>
							</split>
						</split>
						<split pos="right">
							<output> 1.0896158 </output>
						</split>
					</split>
					<split pos="right">
						<output> 1.581687 </output>
					</split>
				</split>
				<split pos="right">
					<output> 1.6420945 </output>
				</split>
			</split>
			<split pos="right">
				<feature> 11 </feature>
				<threshold> 0.0 </threshold>
				<split pos="left">
					<output> -2.1192043 </output>
				</split>
				<split pos="right">
					<output> -0.5146868 </output>
				</split>
			</split>
		</split>
	</tree>
	<tree id="4" weight="0.1">
		<split>
			<feature> 9 </feature>
			<threshold> 0.7379772 </threshold>
			<split pos="left">
				<feature> 102 </feature>
				<threshold> 0.39563522 </threshold>
				<split pos="left">
					<feature> 31 </feature>
					<threshold> 0.4015245 </threshold>
					<split pos="left">
						<feature> 228 </feature>
						<threshold> 0.12804466 </threshold>
						<split pos="left">
							<feature> 87 </feature>
							<threshold> 0.078431 </threshold>
							<split pos="left">
								<feature> 179 </feature>
								<threshold> 0.768627 </threshold>
								<split pos="left">
									<feature> 118 </feature>
									<threshold> 0.323884 </threshold>
									<split pos="left">
										<feature> 48 </feature>
										<threshold> 0.337255 </threshold>
										<split pos="left">
											<output> -0.104137614 </output>
										</split>
										<split pos="right">
											<output> -1.4296021 </output>
										</split>
									</split>
									<split pos="right">
										<output> 1.2396262 </output>
									</split>
								</split>
								<split pos="right">
									<feature> 75 </feature>
									<threshold> 0.509804 </threshold>
									<split pos="left">
										<output> 1.5563504 </output>
									</split>
									<split pos="right">
										<output> 0.16445066 </output>
									</split>
								</split>
							</split>
							<split pos="right">
								<output> -0.71993697 </output>
							</split>
						</split>
						<split pos="right">
							<output> 0.990011 </output>
						</split>
					</split>
					<split pos="right">
						<output> 1.6141442 </output>
					</split>
				</split>
				<split pos="right">
					<output> 1.4605277 </output>
				</split>
			</split>
			<split pos="right">
				<output> 1.5221372 </output>
			</split>
		</split>
	</tree>
	<tree id="5" weight="0.1">
		<split>
			<feature> 9 </feature>
			<threshold> 0.7379772 </threshold>
			<split pos="left">
				<feature> 31 </feature>
				<threshold> 0.4015245 </threshold>
				<split pos="left">
					<feature> 102 </feature>
					<threshold> 0.39563522 </threshold>
					<split pos="left">
						<feature> 228 </feature>
						<threshold> 0.12804466 </threshold>
						<split pos="left">
							<feature> 78 </feature>
							<threshold> 0.12699297 </threshold>
							<split pos="left">
								<output> -1.2516623 </output>
							</split>
							<split pos="right">
								<feature> 148 </feature>
								<threshold> 0.831373 </threshold>
								<split pos="left">
									<feature> 48 </feature>
									<threshold> 0.223529 </threshold>
									<split pos="left">
										<feature> 186 </feature>
										<threshold> 0.905882 </threshold>
										<split pos="left">
											<feature> 154 </feature>
											<threshold> 0.090196 </threshold>
											<split pos="left">
												<output> -0.1588407 </output>
											</split>
											<split pos="right">
												<output> 1.286207 </output>
											</split>
										</split>
										<split pos="right">
											<output> 1.0542688 </output>
										</split>
									</split>
									<split pos="right">
										<output> -0.5755974 </output>
									</split>
								</split>
								<split pos="right">
									<output> 0.8193645 </output>
								</split>
							</split>
						</split>
						<split pos="right">
							<output> 0.8831917 </output>
						</split>
					</split>
					<split pos="right">
						<output> 1.4134209 </output>
					</split>
				</split>
				<split pos="right">
					<output> 1.4132279 </output>
				</split>
			</split>
			<split pos="right">
				<output> 1.401734 </output>
			</split>
		</split>
	</tree>
	<tree id="6" weight="0.1">
		<split>
			<feature> 9 </feature>
			<threshold> 0.7379772 </threshold>
			<split pos="left">
				<feature> 31 </feature>
				<threshold> 0.4015245 </threshold>
				<split pos="left">
					<feature> 102 </feature>
					<threshold> 0.39563522 </threshold>
					<split pos="left">
						<feature> 228 </feature>
						<threshold> 0.12804466 </threshold>
						<split pos="left">
							<feature> 87 </feature>
							<threshold> 0.078431 </threshold>
							<split pos="left">
								<feature> 179 </feature>
								<threshold> 0.768627 </threshold>
								<split pos="left">
									<feature> 48 </feature>
									<threshold> 0.223529 </threshold>
									<split pos="left">
										<feature> 234 </feature>
										<threshold> 0.64227486 </threshold>
										<split pos="left">
											<feature> 118 </feature>
											<threshold> 0.323884 </threshold>
											<split pos="left">
												<output> 0.033821106 </output>
											</split>
											<split pos="right">
												<output> 1.2283247 </output>
											</split>
										</split>
										<split pos="right">
											<output> 1.5296372 </output>
										</split>
									</split>
									<split pos="right">
										<output> -0.9798783 </output>
									</split>
								</split>
								<split pos="right">
									<output> 0.83696437 </output>
								</split>
							</split>
							<split pos="right">
								<output> -0.6666934 </output>
							</split>
						</split>
						<split pos="right">
							<output> 0.81499743 </output>
						</split>
					</split>
					<split pos="right">
						<output> 1.340209 </output>
					</split>
				</split>
				<split pos="right">
					<output> 1.3237599 </output>
				</split>
			</split>
			<split pos="right">
				<output> 1.3411309 </output>
			</split>
		</split>
	</tree>
	<tree id="7" weight="0.1">
		<split>
			<feature> 118 </feature>
			<threshold> 0.916667 </threshold>
			<split pos="left">
				<feature> 9 </feature>
				<threshold> 0.7379772 </threshold>
				<split pos="left">
					<feature> 114 </feature>
					<threshold> 0.28871796 </threshold>
					<split pos="left">
						<feature> 87 </feature>
						<threshold> 0.066667 </threshold>
						<split pos="left">
							<feature> 118 </feature>
							<threshold> 0.300553 </threshold>
							<split pos="left">
								<feature> 149 </feature>
								<threshold> 0.380392 </threshold>
								<split pos="left">
									<feature> 2 </feature>
									<threshold> 0.009806004 </threshold>
									<split pos="left">
										<output> 0.410534 </output>
									</split>
									<split pos="right">
										<output> 1.3787185 </output>
									</split>
								</split>
								<split pos="right">
									<output> 1.4672917 </output>
								</split>
							</split>
							<split pos="right">
								<output> 1.5201281 </output>
							</split>
						</split>
						<split pos="right">
							<feature> 179 </feature>
							<threshold> 0.768627 </threshold>
							<split pos="left">
								<output> -0.63665813 </output>
							</split>
							<split pos="right">
								<output> 0.43645158 </output>
							</split>
						</split>
					</split>
					<split pos="right">
						<output> 1.0434622 </output>
					</split>
				</split>
				<split pos="right">
					<output> 1.2621183 </output>
				</split>
			</split>
			<split pos="right">
				<feature> 11 </feature>
				<threshold> 0.0 </threshold>
				<split pos="left">
					<output> -2.0552764 </output>
				</split>
				<split pos="right">
					<output> -0.23082645 </output>
				</split>
			</split>
		</split>
	</tree>
	<tree id="8" weight="0.1">
		<split>
			<feature> 9 </feature>
			<threshold> 0.7379772 </threshold>
			<split pos="left">
				<feature> 114 </feature>
				<threshold> 0.28871796 </threshold>
				<split pos="left">
					<feature> 6 </feature>
					<threshold> 0.37325528 </threshold>
					<split pos="left">
						<feature> 154 </feature>
						<threshold> 0.090196 </threshold>
						<split pos="left">
							<feature> 44 </feature>
							<threshold> 0.25 </threshold>
							<split pos="left">
								<feature> 58 </feature>
								<threshold> 0.0011066563 </threshold>
								<split pos="left">
									<feature> 8 </feature>
									<threshold> 0.8555125 </threshold>
									<split pos="left">
										<output> 0.0280567 </output>
									</split>
									<split pos="right">
										<output> 1.4900297 </output>
									</split>
								</split>
								<split pos="right">
									<feature> 29 </feature>
									<threshold> 0.8987366 </threshold>
									<split pos="left">
										<feature> 245 </feature>
										<threshold> 0.8 </threshold>
										<split pos="left">
											<output> 1.6597104 </output>
										</split>
										<split pos="right">
											<output> -0.6281493 </output>
										</split>
									</split>
									<split pos="right">
										<output> 0.7565461 </output>
									</split>
								</split>
							</split>
							<split pos="right">
								<output> -3.441276 </output>
							</split>
						</split>
						<split pos="right">
							<output> 0.7336452 </output>
						</split>
					</split>
					<split pos="right">
						<output> 1.3389047 </output>
					</split>
				</split>
				<split pos="right">
					<output> 0.97734004 </output>
				</split>
			</split>
			<split pos="right">
				<output> 1.226192 </output>
			</split>
		</split>
	</tree>
	<tree id="9" weight="0.1">
		<split>
			<feature> 9 </feature>
			<threshold> 0.7379772 </threshold>
			<split pos="left">
				<feature> 114 </feature>
				<threshold> 0.28871796 </threshold>
				<split pos="left">
					<feature> 154 </feature>
					<threshold> 0.090196 </threshold>
					<split pos="left">
						<feature> 6 </feature>
						<threshold> 0.37325528 </threshold>
						<split pos="left">
							<feature> 44 </feature>
							<threshold> 0.25 </threshold>
							<split pos="left">
								<feature> 179 </feature>
								<threshold> 0.764706 </threshold>
								<split pos="left">
									<feature> 48 </feature>
									<threshold> 0.223529 </threshold>
									<split pos="left">
										<feature> 188 </feature>
										<threshold> 0.007781 </threshold>
										<split pos="left">
											<feature> 149 </feature>
											<threshold> 0.360784 </threshold>
											<split pos="left">
												<output> -0.259551 </output>
											</split>
											<split pos="right">
												<output> 1.1500217 </output>
											</split>
										</split>
										<split pos="right">
											<output> 1.4207736 </output>
										</split>
									</split>
									<split pos="right">
										<output> -0.9884021 </output>
									</split>
								</split>
								<split pos="right">
									<output> 0.41095382 </output>
								</split>
							</split>
							<split pos="right">
								<output> -2.804702 </output>
							</split>
						</split>
						<split pos="right">
							<output> 1.2867192 </output>
						</split>
					</split>
					<split pos="right">
						<output> 0.68995714 </output>
					</split>
				</split>
				<split pos="right">
					<output> 0.9485888 </output>
				</split>
			</split>
			<split pos="right">
				<output> 1.1825902 </output>
			</split>
		</split>
	</tree>
	<tree id="10" weight="0.1">
		<split>
			<feature> 9 </feature>
			<threshold> 0.7379772 </threshold>
			<split pos="left">
				<feature> 114 </feature>
				<threshold> 0.28871796 </threshold>
				<split pos="left">
					<feature> 225 </feature>
					<threshold> 0.454902 </threshold>
					<split pos="left">
						<feature> 6 </feature>
						<threshold> 0.37325528 </threshold>
						<split pos="left">
							<feature> 154 </feature>
							<threshold> 0.0 </threshold>
							<split pos="left">
								<feature> 245 </feature>
								<threshold> 0.8 </threshold>
								<split pos="left">
									<output> 1.5059129 </output>
								</split>
								<split pos="right">
									<feature> 96 </feature>
									<threshold> 0.023529 </threshold>
									<split pos="left">
										<feature> 179 </feature>
										<threshold> 0.772549 </threshold>
										<split pos="left">
											<feature> 188 </feature>
											<threshold> 0.006714 </threshold>
											<split pos="left">
												<output> -0.3118072 </output>
											</split>
											<split pos="right">
												<output> 0.89832526 </output>
											</split>
										</split>
										<split pos="right">
											<output> 0.7808397 </output>
										</split>
									</split>
									<split pos="right">
										<output> -0.62683815 </output>
									</split>
								</split>
							</split>
							<split pos="right">
								<output> 0.4256119 </output>
							</split>
						</split>
						<split pos="right">
							<output> 1.2504056 </output>
						</split>
					</split>
					<split pos="right">
						<output> 1.7258531 </output>
					</split>
				</split>
				<split pos="right">
					<output> 0.9236356 </output>
				</split>
			</split>
			<split pos="right">
				<output> 1.14434 </output>
			</split>
		</split>
	</tree>
	<tree id="11" weight="0.1">
		<split>
			<feature> 9 </feature>
			<threshold> 0.7379772 </threshold>
			<split pos="left">
				<feature> 114 </feature>
				<threshold> 0.28871796 </threshold>
				<split pos="left">
					<feature> 154 </feature>
					<threshold> 0.090196 </threshold>
					<split pos="left">
						<feature> 179 </feature>
						<threshold> 0.764706 </threshold>
						<split pos="left">
							<feature> 48 </feature>
							<threshold> 0.223529 </threshold>
							<split pos="left">
								<feature> 188 </feature>
								<threshold> 0.007781 </threshold>
								<split pos="left">
									<feature> 190 </feature>
									<threshold> 3.7E-5 </threshold>
									<split pos="left">
										<feature> 149 </feature>
										<threshold> 0.360784 </threshold>
										<split pos="left">
											<feature> 94 </feature>
											<threshold> 0.666667 </threshold>
											<split pos="left">
												<output> -1.0534611 </output>
											</split>
											<split pos="right">
												<output> -0.046922017 </output>
											</split>
										</split>
										<split pos="right">
											<output> 1.0669874 </output>
										</split>
									</split>
									<split pos="right">
										<output> 1.504251 </output>
									</split>
								</split>
								<split pos="right">
									<output> 1.3417234 </output>
								</split>
							</split>
							<split pos="right">
								<output> -0.9480715 </output>
							</split>
						</split>
						<split pos="right">
							<output> 0.41318485 </output>
						</split>
					</split>
					<split pos="right">
						<output> 0.6242928 </output>
					</split>
				</split>
				<split pos="right">
					<output> 0.88077706 </output>
				</split>
			</split>
			<split pos="right">
				<output> 1.1138033 </output>
			</split>
		</split>
	</tree>
	<tree id="12" weight="0.1">
		<split>
			<feature> 9 </feature>
			<threshold> 0.7379772 </threshold>
			<split pos="left">
				<feature> 114 </feature>
				<threshold> 0.28871796 </threshold>
				<split pos="left">
					<feature> 154 </feature>
					<threshold> 0.0 </threshold>
					<split pos="left">
						<feature> 96 </feature>
						<threshold> 0.023529 </threshold>
						<split pos="left">
							<feature> 192 </feature>
							<threshold> 0.16002896 </threshold>
							<split pos="left">
								<feature> 3 </feature>
								<threshold> 0.0 </threshold>
								<split pos="left">
									<output> -0.65380955 </output>
								</split>
								<split pos="right">
									<feature> 186 </feature>
									<threshold> 0.886275 </threshold>
									<split pos="left">
										<output> 0.2432608 </output>
									</split>
									<split pos="right">
										<output> 1.4770254 </output>
									</split>
								</split>
							</split>
							<split pos="right">
								<output> 0.90992755 </output>
							</split>
						</split>
						<split pos="right">
							<feature> 212 </feature>
							<threshold> 0.094118 </threshold>
							<split pos="left">
								<output> 1.4523436 </output>
							</split>
							<split pos="right">
								<output> -0.61377466 </output>
							</split>
						</split>
					</split>
					<split pos="right">
						<feature> 225 </feature>
						<threshold> 0.047059 </threshold>
						<split pos="left">
							<output> 1.3418174 </output>
						</split>
						<split pos="right">
							<output> 0.19285512 </output>
						</split>
					</split>
				</split>
				<split pos="right">
					<output> 0.8237567 </output>
				</split>
			</split>
			<split pos="right">
				<output> 1.084951 </output>
			</split>
		</split>
	</tree>
	<tree id="13" weight="0.1">
		<split>
			<feature> 228 </feature>
			<threshold> 0.03963289 </threshold>
			<split pos="left">
				<feature> 2 </feature>
				<threshold> 0.018386252 </threshold>
				<split pos="left">
					<feature> 188 </feature>
					<threshold> 0.009762 </threshold>
					<split pos="left">
						<feature> 205 </feature>
						<threshold> 0.079647 </threshold>
						<split pos="left">
							<feature> 225 </feature>
							<threshold> 0.509804 </threshold>
							<split pos="left">
								<feature> 65 </feature>
								<threshold> 0.9 </threshold>
								<split pos="left">
									<feature> 78 </feature>
									<threshold> 0.12699297 </threshold>
									<split pos="left">
										<output> -1.107091 </output>
									</split>
									<split pos="right">
										<feature> 148 </feature>
										<threshold> 0.831373 </threshold>
										<split pos="left">
											<feature> 16 </feature>
											<threshold> 0.105882 </threshold>
											<split pos="left">
												<output> -0.47933072 </output>
											</split>
											<split pos="right">
												<output> 0.051506944 </output>
											</split>
										</split>
										<split pos="right">
											<output> 0.85043865 </output>
										</split>
									</split>
								</split>
								<split pos="right">
									<output> 2.3434968 </output>
								</split>
							</split>
							<split pos="right">
								<output> 1.7343389 </output>
							</split>
						</split>
						<split pos="right">
							<output> 1.1946018 </output>
						</split>
					</split>
					<split pos="right">
						<output> 0.9606803 </output>
					</split>
				</split>
				<split pos="right">
					<output> 1.1620435 </output>
				</split>
			</split>
			<split pos="right">
				<output> 0.7953512 </output>
			</split>
		</split>
	</tree>
	<tree id="14" weight="0.1">
		<split>
			<feature> 9 </feature>
			<threshold> 0.7379772 </threshold>
			<split pos="left">
				<feature> 114 </feature>
				<threshold> 0.28871796 </threshold>
				<split pos="left">
					<feature> 37 </feature>
					<threshold> 0.956863 </threshold>
					<split pos="left">
						<feature> 87 </feature>
						<threshold> 0.086274 </threshold>
						<split pos="left">
							<feature> 153 </feature>
							<threshold> 0.701961 </threshold>
							<split pos="left">
								<feature> 245 </feature>
								<threshold> 0.8 </threshold>
								<split pos="left">
									<output> 1.4057326 </output>
								</split>
								<split pos="right">
									<feature> 223 </feature>
									<threshold> 0.940298 </threshold>
									<split pos="left">
										<feature> 190 </feature>
										<threshold> 1.0E-6 </threshold>
										<split pos="left">
											<feature> 33 </feature>
											<threshold> 0.916667 </threshold>
											<split pos="left">
												<output> -0.32566467 </output>
											</split>
											<split pos="right">
												<output> 1.3028053 </output>
											</split>
										</split>
										<split pos="right">
											<output> 0.9209768 </output>
										</split>
									</split>
									<split pos="right">
										<output> 1.3876361 </output>
									</split>
								</split>
							</split>
							<split pos="right">
								<output> 0.5030443 </output>
							</split>
						</split>
						<split pos="right">
							<output> -0.6034178 </output>
						</split>
					</split>
					<split pos="right">
						<output> 0.6476828 </output>
					</split>
				</split>
				<split pos="right">
					<output> 0.74319404 </output>
				</split>
			</split>
			<split pos="right">
				<output> 1.044015 </output>
			</split>
		</split>
	</tree>
	<tree id="15" weight="0.1">
		<split>
			<feature> 31 </feature>
			<threshold> 0.4015245 </threshold>
			<split pos="left">
				<feature> 228 </feature>
				<threshold> 0.036584206 </threshold>
				<split pos="left">
					<feature> 188 </feature>
					<threshold> 0.009762 </threshold>
					<split pos="left">
						<feature> 154 </feature>
						<threshold> 0.090196 </threshold>
						<split pos="left">
							<feature> 158 </feature>
							<threshold> 0.035955 </threshold>
							<split pos="left">
								<feature> 11 </feature>
								<threshold> 0.3369176 </threshold>
								<split pos="left">
									<feature> 87 </feature>
									<threshold> 0.086274 </threshold>
									<split pos="left">
										<feature> 104 </feature>
										<threshold> 0.078431 </threshold>
										<split pos="left">
											<output> 0.48252887 </output>
										</split>
										<split pos="right">
											<feature> 148 </feature>
											<threshold> 0.831373 </threshold>
											<split pos="left">
												<output> -0.4403319 </output>
											</split>
											<split pos="right">
												<output> 0.7495216 </output>
											</split>
										</split>
									</split>
									<split pos="right">
										<output> -0.75934887 </output>
									</split>
								</split>
								<split pos="right">
									<output> 1.4214419 </output>
								</split>
							</split>
							<split pos="right">
								<output> 1.4131657 </output>
							</split>
						</split>
						<split pos="right">
							<output> 0.49020925 </output>
						</split>
					</split>
					<split pos="right">
						<output> 1.2457201 </output>
					</split>
				</split>
				<split pos="right">
					<output> 0.6569112 </output>
				</split>
			</split>
			<split pos="right">
				<output> 0.9786961 </output>
			</split>
		</split>
	</tree>
	<tree id="16" weight="0.1">
		<split>
			<feature> 228 </feature>
			<threshold> 0.03963289 </threshold>
			<split pos="left">
				<feature> 2 </feature>
				<threshold> 0.018386252 </threshold>
				<split pos="left">
					<feature> 225 </feature>
					<threshold> 0.509804 </threshold>
					<split pos="left">
						<feature> 78 </feature>
						<threshold> 0.12699297 </threshold>
						<split pos="left">
							<output> -1.0290687 </output>
						</split>
						<split pos="right">
							<feature> 148 </feature>
							<threshold> 0.831373 </threshold>
							<split pos="left">
								<feature> 188 </feature>
								<threshold> 0.007781 </threshold>
								<split pos="left">
									<feature> 158 </feature>
									<threshold> 0.035955 </threshold>
									<split pos="left">
										<feature> 65 </feature>
										<threshold> 0.9 </threshold>
										<split pos="left">
											<feature> 3 </feature>
											<threshold> 0.0 </threshold>
											<split pos="left">
												<output> -0.49432996 </output>
											</split>
											<split pos="right">
												<output> 0.061657473 </output>
											</split>
										</split>
										<split pos="right">
											<output> 2.0258791 </output>
										</split>
									</split>
									<split pos="right">
										<output> 1.2700142 </output>
									</split>
								</split>
								<split pos="right">
									<output> 0.8692699 </output>
								</split>
							</split>
							<split pos="right">
								<output> 0.74394053 </output>
							</split>
						</split>
					</split>
					<split pos="right">
						<output> 1.617901 </output>
					</split>
				</split>
				<split pos="right">
					<output> 1.1208078 </output>
				</split>
			</split>
			<split pos="right">
				<output> 0.6611021 </output>
			</split>
		</split>
	</tree>
	<tree id="17" weight="0.1">
		<split>
			<feature> 225 </feature>
			<threshold> 0.509804 </threshold>
			<split pos="left">
				<feature> 65 </feature>
				<threshold> 0.9 </threshold>
				<split pos="left">
					<feature> 234 </feature>
					<threshold> 0.6377081 </threshold>
					<split pos="left">
						<feature> 154 </feature>
						<threshold> 0.0 </threshold>
						<split pos="left">
							<feature> 96 </feature>
							<threshold> 0.023529 </threshold>
							<split pos="left">
								<feature> 65 </feature>
								<threshold> 0.5 </threshold>
								<split pos="left">
									<feature> 94 </feature>
									<threshold> 0.666667 </threshold>
									<split pos="left">
										<output> -0.69287866 </output>
									</split>
									<split pos="right">
										<output> 0.19684464 </output>
									</split>
								</split>
								<split pos="right">
									<output> 2.0589714 </output>
								</split>
							</split>
							<split pos="right">
								<feature> 212 </feature>
								<threshold> 0.094118 </threshold>
								<split pos="left">
									<output> 1.2681026 </output>
								</split>
								<split pos="right">
									<output> -0.5169169 </output>
								</split>
							</split>
						</split>
						<split pos="right">
							<feature> 65 </feature>
							<threshold> 0.3 </threshold>
							<split pos="left">
								<output> 0.26160067 </output>
							</split>
							<split pos="right">
								<output> 1.3433224 </output>
							</split>
						</split>
					</split>
					<split pos="right">
						<output> 0.6006756 </output>
					</split>
				</split>
				<split pos="right">
					<output> 1.7874038 </output>
				</split>
			</split>
			<split pos="right">
				<output> 1.4390874 </output>
			</split>
		</split>
	</tree>
	<tree id="18" weight="0.1">
		<split>
			<feature> 225 </feature>
			<threshold> 0.509804 </threshold>
			<split pos="left">
				<feature> 65 </feature>
				<threshold> 0.9 </threshold>
				<split pos="left">
					<feature> 9 </feature>
					<threshold> 0.7379772 </threshold>
					<split pos="left">
						<feature> 114 </feature>
						<threshold> 0.38672358 </threshold>
						<split pos="left">
							<feature> 94 </feature>
							<threshold> 0.666667 </threshold>
							<split pos="left">
								<output> -0.5093921 </output>
							</split>
							<split pos="right">
								<feature> 104 </feature>
								<threshold> 0.090196 </threshold>
								<split pos="left">
									<output> 0.62023973 </output>
								</split>
								<split pos="right">
									<feature> 37 </feature>
									<threshold> 0.956863 </threshold>
									<split pos="left">
										<feature> 148 </feature>
										<threshold> 0.827451 </threshold>
										<split pos="left">
											<feature> 106 </feature>
											<threshold> 0.72549 </threshold>
											<split pos="left">
												<output> -0.65038025 </output>
											</split>
											<split pos="right">
												<output> 0.049593814 </output>
											</split>
										</split>
										<split pos="right">
											<output> 0.7261665 </output>
										</split>
									</split>
									<split pos="right">
										<output> 0.71699435 </output>
									</split>
								</split>
							</split>
						</split>
						<split pos="right">
							<output> 0.8354853 </output>
						</split>
					</split>
					<split pos="right">
						<output> 0.9824678 </output>
					</split>
				</split>
				<split pos="right">
					<output> 1.6262282 </output>
				</split>
			</split>
			<split pos="right">
				<output> 1.380456 </output>
			</split>
		</split>
	</tree>
	<tree id="19" weight="0.1">
		<split>
			<feature> 225 </feature>
			<threshold> 0.509804 </threshold>
			<split pos="left">
				<feature> 65 </feature>
				<threshold> 0.9 </threshold>
				<split pos="left">
					<feature> 234 </feature>
					<threshold> 0.6377081 </threshold>
					<split pos="left">
						<feature> 161 </feature>
						<threshold> 0.898039 </threshold>
						<split pos="left">
							<feature> 154 </feature>
							<threshold> 0.0 </threshold>
							<split pos="left">
								<feature> 96 </feature>
								<threshold> 0.023529 </threshold>
								<split pos="left">
									<feature> 65 </feature>
									<threshold> 0.5 </threshold>
									<split pos="left">
										<feature> 202 </feature>
										<threshold> 0.017605 </threshold>
										<split pos="left">
											<output> -0.019895148 </output>
										</split>
										<split pos="right">
											<output> 1.0931205 </output>
										</split>
									</split>
									<split pos="right">
										<output> 1.6900108 </output>
									</split>
								</split>
								<split pos="right">
									<output> -0.44228 </output>
								</split>
							</split>
							<split pos="right">
								<feature> 167 </feature>
								<threshold> 0.439216 </threshold>
								<split pos="left">
									<output> 0.20920527 </output>
								</split>
								<split pos="right">
									<output> 1.2894824 </output>
								</split>
							</split>
						</split>
						<split pos="right">
							<output> -1.9455343 </output>
						</split>
					</split>
					<split pos="right">
						<output> 0.5618102 </output>
					</split>
				</split>
				<split pos="right">
					<output> 1.5219377 </output>
				</split>
			</split>
			<split pos="right">
				<output> 1.342199 </output>
			</split>
		</split>
	</tree>
	<tree id="20" weight="0.1">
		<split>
			<feature> 225 </feature>
			<threshold> 0.509804 </threshold>
			<split pos="left">
				<feature> 65 </feature>
				<threshold> 0.9 </threshold>
				<split pos="left">
					<feature> 37 </feature>
					<threshold> 0.956863 </threshold>
					<split pos="left">
						<feature> 114 </feature>
						<threshold> 0.38672358 </threshold>
						<split pos="left">
							<feature> 52 </feature>
							<threshold> 0.487946 </threshold>
							<split pos="left">
								<feature> 149 </feature>
								<threshold> 0.384314 </threshold>
								<split pos="left">
									<feature> 151 </feature>
									<threshold> 0.8930348 </threshold>
									<split pos="left">
										<feature> 188 </feature>
										<threshold> 0.006011 </threshold>
										<split pos="left">
											<feature> 2 </feature>
											<threshold> 0.018386252 </threshold>
											<split pos="left">
												<output> -0.2001436 </output>
											</split>
											<split pos="right">
												<output> 1.1027914 </output>
											</split>
										</split>
										<split pos="right">
											<output> -1.6930782 </output>
										</split>
									</split>
									<split pos="right">
										<output> 0.84990525 </output>
									</split>
								</split>
								<split pos="right">
									<output> 0.8264277 </output>
								</split>
							</split>
							<split pos="right">
								<output> -1.4491379 </output>
							</split>
						</split>
						<split pos="right">
							<output> 0.9357816 </output>
						</split>
					</split>
					<split pos="right">
						<output> 0.5587077 </output>
					</split>
				</split>
				<split pos="right">
					<output> 1.4294798 </output>
				</split>
			</split>
			<split pos="right">
				<output> 1.3007427 </output>
			</split>
		</split>
	</tree>
	<tree id="21" weight="0.1">
		<split>
			<feature> 225 </feature>
			<threshold> 0.509804 </threshold>
			<split pos="left">
				<feature> 4 </feature>
				<threshold> 0.026311 </threshold>
				<split pos="left">
					<feature> 65 </feature>
					<threshold> 0.9 </threshold>
					<split pos="left">
						<feature> 2 </feature>
						<threshold> 0.0140961325 </threshold>
						<split pos="left">
							<feature> 205 </feature>
							<threshold> 0.079647 </threshold>
							<split pos="left">
								<feature> 16 </feature>
								<threshold> 0.254902 </threshold>
								<split pos="left">
									<feature> 188 </feature>
									<threshold> 0.007781 </threshold>
									<split pos="left">
										<feature> 149 </feature>
										<threshold> 0.384314 </threshold>
										<split pos="left">
											<feature> 245 </feature>
											<threshold> 0.8 </threshold>
											<split pos="left">
												<output> 1.2185189 </output>
											</split>
											<split pos="right">
												<output> -0.10462868 </output>
											</split>
										</split>
										<split pos="right">
											<output> 0.86539596 </output>
										</split>
									</split>
									<split pos="right">
										<output> 1.1900703 </output>
									</split>
								</split>
								<split pos="right">
									<output> -0.6347721 </output>
								</split>
							</split>
							<split pos="right">
								<output> 1.2601231 </output>
							</split>
						</split>
						<split pos="right">
							<output> 1.0726155 </output>
						</split>
					</split>
					<split pos="right">
						<output> 1.3226616 </output>
					</split>
				</split>
				<split pos="right">
					<output> 0.53552324 </output>
				</split>
			</split>
			<split pos="right">
				<output> 1.2764528 </output>
			</split>
		</split>
	</tree>
	<tree id="22" weight="0.1">
		<split>
			<feature> 225 </feature>
			<threshold> 0.509804 </threshold>
			<split pos="left">
				<feature> 202 </feature>
				<threshold> 0.024123 </threshold>
				<split pos="left">
					<feature> 154 </feature>
					<threshold> 0.090196 </threshold>
					<split pos="left">
						<feature> 228 </feature>
						<threshold> 0.03353552 </threshold>
						<split pos="left">
							<feature> 188 </feature>
							<threshold> 0.007781 </threshold>
							<split pos="left">
								<feature> 158 </feature>
								<threshold> 0.035955 </threshold>
								<split pos="left">
									<feature> 96 </feature>
									<threshold> 0.027451 </threshold>
									<split pos="left">
										<feature> 179 </feature>
										<threshold> 0.768627 </threshold>
										<split pos="left">
											<feature> 3 </feature>
											<threshold> 0.0 </threshold>
											<split pos="left">
												<output> -0.66368985 </output>
											</split>
											<split pos="right">
												<output> 0.13515948 </output>
											</split>
										</split>
										<split pos="right">
											<output> 0.47997418 </output>
										</split>
									</split>
									<split pos="right">
										<output> -0.5812877 </output>
									</split>
								</split>
								<split pos="right">
									<output> 1.3186038 </output>
								</split>
							</split>
							<split pos="right">
								<output> 1.1675773 </output>
							</split>
						</split>
						<split pos="right">
							<output> 0.5195334 </output>
						</split>
					</split>
					<split pos="right">
						<output> 0.42415935 </output>
					</split>
				</split>
				<split pos="right">
					<output> 1.2268912 </output>
				</split>
			</split>
			<split pos="right">
				<output> 1.2513407 </output>
			</split>
		</split>
	</tree>
	<tree id="23" weight="0.1">
		<split>
			<feature> 225 </feature>
			<threshold> 0.509804 </threshold>
			<split pos="left">
				<feature> 202 </feature>
				<threshold> 0.024123 </threshold>
				<split pos="left">
					<feature> 78 </feature>
					<threshold> 0.15687361 </threshold>
					<split pos="left">
						<output> -0.72629344 </output>
					</split>
					<split pos="right">
						<feature> 37 </feature>
						<threshold> 0.956863 </threshold>
						<split pos="left">
							<feature> 148 </feature>
							<threshold> 0.831373 </threshold>
							<split pos="left">
								<feature> 104 </feature>
								<threshold> 0.298039 </threshold>
								<split pos="left">
									<output> 0.4157566 </output>
								</split>
								<split pos="right">
									<feature> 5 </feature>
									<threshold> 0.292929 </threshold>
									<split pos="left">
										<feature> 188 </feature>
										<threshold> 0.006981 </threshold>
										<split pos="left">
											<feature> 9 </feature>
											<threshold> 0.7379772 </threshold>
											<split pos="left">
												<output> -0.47229332 </output>
											</split>
											<split pos="right">
												<output> 1.0633852 </output>
											</split>
										</split>
										<split pos="right">
											<output> 1.1567559 </output>
										</split>
									</split>
									<split pos="right">
										<output> 0.26302874 </output>
									</split>
								</split>
							</split>
							<split pos="right">
								<output> 0.7132094 </output>
							</split>
						</split>
						<split pos="right">
							<output> 0.63978416 </output>
						</split>
					</split>
				</split>
				<split pos="right">
					<output> 1.2190653 </output>
				</split>
			</split>
			<split pos="right">
				<output> 1.2228438 </output>
			</split>
		</split>
	</tree>
	<tree id="24" weight="0.1">
		<split>
			<feature> 168 </feature>
			<threshold> 0.934167 </threshold>
			<split pos="left">
				<feature> 154 </feature>
				<threshold> 0.0 </threshold>
				<split pos="left">
					<feature> 202 </feature>
					<threshold> 0.033259 </threshold>
					<split pos="left">
						<feature> 65 </feature>
						<threshold> 0.9 </threshold>
						<split pos="left">
							<feature> 234 </feature>
							<threshold> 0.6788087 </threshold>
							<split pos="left">
								<feature> 186 </feature>
								<threshold> 0.882353 </threshold>
								<split pos="left">
									<feature> 96 </feature>
									<threshold> 0.023529 </threshold>
									<split pos="left">
										<feature> 65 </feature>
										<threshold> 0.5 </threshold>
										<split pos="left">
											<output> -0.06861269 </output>
										</split>
										<split pos="right">
											<output> 1.4069636 </output>
										</split>
									</split>
									<split pos="right">
										<output> -0.45594332 </output>
									</split>
								</split>
								<split pos="right">
									<output> 0.51338243 </output>
								</split>
							</split>
							<split pos="right">
								<output> 1.2015244 </output>
							</split>
						</split>
						<split pos="right">
							<output> 1.2561978 </output>
						</split>
					</split>
					<split pos="right">
						<output> 1.3451976 </output>
					</split>
				</split>
				<split pos="right">
					<feature> 167 </feature>
					<threshold> 0.439216 </threshold>
					<split pos="left">
						<output> 0.19717272 </output>
					</split>
					<split pos="right">
						<output> 1.1975797 </output>
					</split>
				</split>
			</split>
			<split pos="right">
				<output> 1.2261273 </output>
			</split>
		</split>
	</tree>
	<tree id="25" weight="0.1">
		<split>
			<feature> 78 </feature>
			<threshold> 0.15687361 </threshold>
			<split pos="left">
				<output> -0.77059984 </output>
			</split>
			<split pos="right">
				<feature> 234 </feature>
				<threshold> 0.6437971 </threshold>
				<split pos="left">
					<feature> 154 </feature>
					<threshold> 0.0 </threshold>
					<split pos="left">
						<feature> 179 </feature>
						<threshold> 0.776471 </threshold>
						<split pos="left">
							<feature> 48 </feature>
							<threshold> 0.223529 </threshold>
							<split pos="left">
								<feature> 4 </feature>
								<threshold> 0.870669 </threshold>
								<split pos="left">
									<feature> 188 </feature>
									<threshold> 0.006714 </threshold>
									<split pos="left">
										<feature> 55 </feature>
										<threshold> 0.588235 </threshold>
										<split pos="left">
											<output> -0.10974677 </output>
										</split>
										<split pos="right">
											<output> 1.1812801 </output>
										</split>
									</split>
									<split pos="right">
										<output> 1.1452429 </output>
									</split>
								</split>
								<split pos="right">
									<output> 2.0098593 </output>
								</split>
							</split>
							<split pos="right">
								<output> -0.75742286 </output>
							</split>
						</split>
						<split pos="right">
							<output> 0.45164454 </output>
						</split>
					</split>
					<split pos="right">
						<feature> 167 </feature>
						<threshold> 0.439216 </threshold>
						<split pos="left">
							<output> 0.23214215 </output>
						</split>
						<split pos="right">
							<output> 1.1704541 </output>
						</split>
					</split>
				</split>
				<split pos="right">
					<output> 0.6994698 </output>
				</split>
			</split>
		</split>
	</tree>
	<tree id="26" weight="0.1">
		<split>
			<feature> 16 </feature>
			<threshold> 0.105882 </threshold>
			<split pos="left">
				<feature> 8 </feature>
				<threshold> 0.8179902 </threshold>
				<split pos="left">
					<output> -0.48540303 </output>
				</split>
				<split pos="right">
					<output> 0.55926484 </output>
				</split>
			</split>
			<split pos="right">
				<feature> 154 </feature>
				<threshold> 0.090196 </threshold>
				<split pos="left">
					<feature> 87 </feature>
					<threshold> 0.039216 </threshold>
					<split pos="left">
						<output> 0.9012828 </output>
					</split>
					<split pos="right">
						<feature> 53 </feature>
						<threshold> 0.953125 </threshold>
						<split pos="left">
							<feature> 114 </feature>
							<threshold> 0.4264556 </threshold>
							<split pos="left">
								<feature> 135 </feature>
								<threshold> 0.047059 </threshold>
								<split pos="left">
									<output> 1.2780613 </output>
								</split>
								<split pos="right">
									<feature> 87 </feature>
									<threshold> 0.105882 </threshold>
									<split pos="left">
										<feature> 52 </feature>
										<threshold> 0.457506 </threshold>
										<split pos="left">
											<output> -0.07968822 </output>
										</split>
										<split pos="right">
											<output> 1.0306972 </output>
										</split>
									</split>
									<split pos="right">
										<output> -0.94334954 </output>
									</split>
								</split>
							</split>
							<split pos="right">
								<output> 1.1741601 </output>
							</split>
						</split>
						<split pos="right">
							<output> 1.097414 </output>
						</split>
					</split>
				</split>
				<split pos="right">
					<output> 0.69931096 </output>
				</split>
			</split>
		</split>
	</tree>
	<tree id="27" weight="0.1">
		<split>
			<feature> 78 </feature>
			<threshold> 0.15687361 </threshold>
			<split pos="left">
				<output> -0.77059734 </output>
			</split>
			<split pos="right">
				<feature> 167 </feature>
				<threshold> 0.447059 </threshold>
				<split pos="left">
					<feature> 37 </feature>
					<threshold> 0.956863 </threshold>
					<split pos="left">
						<feature> 114 </feature>
						<threshold> 0.28077155 </threshold>
						<split pos="left">
							<feature> 3 </feature>
							<threshold> 0.0 </threshold>
							<split pos="left">
								<output> -0.48014584 </output>
							</split>
							<split pos="right">
								<feature> 86 </feature>
								<threshold> 0.0 </threshold>
								<split pos="left">
									<output> 0.87288356 </output>
								</split>
								<split pos="right">
									<feature> 173 </feature>
									<threshold> 0.6 </threshold>
									<split pos="left">
										<output> 1.1331563 </output>
									</split>
									<split pos="right">
										<feature> 179 </feature>
										<threshold> 0.894118 </threshold>
										<split pos="left">
											<feature> 154 </feature>
											<threshold> 0.090196 </threshold>
											<split pos="left">
												<output> -0.25503433 </output>
											</split>
											<split pos="right">
												<output> 0.7191277 </output>
											</split>
										</split>
										<split pos="right">
											<output> 2.7801087 </output>
										</split>
									</split>
								</split>
							</split>
						</split>
						<split pos="right">
							<output> 0.7828496 </output>
						</split>
					</split>
					<split pos="right">
						<output> 0.6348536 </output>
					</split>
				</split>
				<split pos="right">
					<output> 0.693021 </output>
				</split>
			</split>
		</split>
	</tree>
	<tree id="28" weight="0.1">
		<split>
			<feature> 78 </feature>
			<threshold> 0.15687361 </threshold>
			<split pos="left">
				<output> -0.73089504 </output>
			</split>
			<split pos="right">
				<feature> 167 </feature>
				<threshold> 0.447059 </threshold>
				<split pos="left">
					<feature> 202 </feature>
					<threshold> 0.006652 </threshold>
					<split pos="left">
						<feature> 168 </feature>
						<threshold> 0.934167 </threshold>
						<split pos="left">
							<feature> 148 </feature>
							<threshold> 0.831373 </threshold>
							<split pos="left">
								<feature> 179 </feature>
								<threshold> 0.992157 </threshold>
								<split pos="left">
									<feature> 154 </feature>
									<threshold> 0.760784 </threshold>
									<split pos="left">
										<feature> 8 </feature>
										<threshold> 0.88553035 </threshold>
										<split pos="left">
											<feature> 70 </feature>
											<threshold> 0.39738968 </threshold>
											<split pos="left">
												<output> -0.0630112 </output>
											</split>
											<split pos="right">
												<output> -0.9103243 </output>
											</split>
										</split>
										<split pos="right">
											<output> 0.89377123 </output>
										</split>
									</split>
									<split pos="right">
										<output> -2.270098 </output>
									</split>
								</split>
								<split pos="right">
									<output> 0.8781676 </output>
								</split>
							</split>
							<split pos="right">
								<output> 0.58259225 </output>
							</split>
						</split>
						<split pos="right">
							<output> 1.4982462 </output>
						</split>
					</split>
					<split pos="right">
						<output> 0.93182534 </output>
					</split>
				</split>
				<split pos="right">
					<output> 0.67510325 </output>
				</split>
			</split>
		</split>
	</tree>
	<tree id="29" weight="0.1">
		<split>
			<feature> 154 </feature>
			<threshold> 0.0 </threshold>
			<split pos="left">
				<feature> 234 </feature>
				<threshold> 0.6437971 </threshold>
				<split pos="left">
					<feature> 65 </feature>
					<threshold> 0.9 </threshold>
					<split pos="left">
						<feature> 96 </feature>
						<threshold> 0.023529 </threshold>
						<split pos="left">
							<feature> 65 </feature>
							<threshold> 0.5 </threshold>
							<split pos="left">
								<feature> 87 </feature>
								<threshold> 0.086274 </threshold>
								<split pos="left">
									<feature> 137 </feature>
									<threshold> 0.0 </threshold>
									<split pos="left">
										<output> 0.5249226 </output>
									</split>
									<split pos="right">
										<output> -0.7641126 </output>
									</split>
								</split>
								<split pos="right">
									<output> -0.6411424 </output>
								</split>
							</split>
							<split pos="right">
								<output> 1.2851788 </output>
							</split>
						</split>
						<split pos="right">
							<feature> 162 </feature>
							<threshold> 0.022826 </threshold>
							<split pos="left">
								<output> -0.47711867 </output>
							</split>
							<split pos="right">
								<output> 0.7327195 </output>
							</split>
						</split>
					</split>
					<split pos="right">
						<output> 1.1932677 </output>
					</split>
				</split>
				<split pos="right">
					<output> 0.63943005 </output>
				</split>
			</split>
			<split pos="right">
				<feature> 167 </feature>
				<threshold> 0.439216 </threshold>
				<split pos="left">
					<output> 0.12390582 </output>
				</split>
				<split pos="right">
					<output> 1.0621549 </output>
				</split>
			</split>
		</split>
	</tree>
	<tree id="30" weight="0.1">
		<split>
			<feature> 154 </feature>
			<threshold> 0.0 </threshold>
			<split pos="left">
				<feature> 234 </feature>
				<threshold> 0.6437971 </threshold>
				<split pos="left">
					<feature> 65 </feature>
					<threshold> 0.9 </threshold>
					<split pos="left">
						<feature> 94 </feature>
						<threshold> 0.5 </threshold>
						<split pos="left">
							<output> -0.63710606 </output>
						</split>
						<split pos="right">
							<feature> 195 </feature>
							<threshold> 0.346326 </threshold>
							<split pos="left">
								<feature> 195 </feature>
								<threshold> 0.342588 </threshold>
								<split pos="left">
									<feature> 4 </feature>
									<threshold> 0.564319 </threshold>
									<split pos="left">
										<feature> 87 </feature>
										<threshold> 0.015686 </threshold>
										<split pos="left">
											<output> 0.76714164 </output>
										</split>
										<split pos="right">
											<output> -0.06317903 </output>
										</split>
									</split>
									<split pos="right">
										<output> 1.9381087 </output>
									</split>
								</split>
								<split pos="right">
									<output> 1.6139809 </output>
								</split>
							</split>
							<split pos="right">
								<output> -0.39607757 </output>
							</split>
						</split>
					</split>
					<split pos="right">
						<output> 1.1638085 </output>
					</split>
				</split>
				<split pos="right">
					<output> 0.5952525 </output>
				</split>
			</split>
			<split pos="right">
				<feature> 167 </feature>
				<threshold> 0.439216 </threshold>
				<split pos="left">
					<output> 0.12125152 </output>
				</split>
				<split pos="right">
					<output> 0.998533 </output>
				</split>
			</split>
		</split>
	</tree>
	<tree id="31" weight="0.1">
		<split>
			<feature> 130 </feature>
			<threshold> 0.71835697 </threshold>
			<split pos="left">
				<feature> 99 </feature>
				<threshold> 0.666667 </threshold>
				<split pos="left">
					<feature> 16 </feature>
					<threshold> 0.105882 </threshold>
					<split pos="left">
						<feature> 190 </feature>
						<threshold> 0.0 </threshold>
						<split pos="left">
							<feature> 101 </feature>
							<threshold> 0.984375 </threshold>
							<split pos="left">
								<output> -0.6933525 </output>
							</split>
							<split pos="right">
								<output> 0.6564827 </output>
							</split>
						</split>
						<split pos="right">
							<output> 1.070229 </output>
						</split>
					</split>
					<split pos="right">
						<feature> 11 </feature>
						<threshold> 0.007487055 </threshold>
						<split pos="left">
							<feature> 16 </feature>
							<threshold> 0.239216 </threshold>
							<split pos="left">
								<feature> 65 </feature>
								<threshold> 0.4 </threshold>
								<split pos="left">
									<output> 0.074129716 </output>
								</split>
								<split pos="right">
									<output> 1.5281594 </output>
								</split>
							</split>
							<split pos="right">
								<output> -0.56019324 </output>
							</split>
						</split>
						<split pos="right">
							<output> 0.5719787 </output>
						</split>
					</split>
				</split>
				<split pos="right">
					<output> 1.335938 </output>
				</split>
			</split>
			<split pos="right">
				<feature> 55 </feature>
				<threshold> 0.141176 </threshold>
				<split pos="left">
					<output> 0.8932937 </output>
				</split>
				<split pos="right">
					<output> -0.052987665 </output>
				</split>
			</split>
		</split>
	</tree>
	<tree id="32" weight="0.1">
		<split>
			<feature> 154 </feature>
			<threshold> 0.772549 </threshold>
			<split pos="left">
				<feature> 96 </feature>
				<threshold> 0.086274 </threshold>
				<split pos="left">
					<feature> 154 </feature>
					<threshold> 0.0 </threshold>
					<split pos="left">
						<feature> 234 </feature>
						<threshold> 0.6437971 </threshold>
						<split pos="left">
							<feature> 109 </feature>
							<threshold> 0.262745 </threshold>
							<split pos="left">
								<feature> 14 </feature>
								<threshold> 0.8585133 </threshold>
								<split pos="left">
									<feature> 78 </feature>
									<threshold> 0.45941597 </threshold>
									<split pos="left">
										<output> -0.34994704 </output>
									</split>
									<split pos="right">
										<feature> 130 </feature>
										<threshold> 0.3020786 </threshold>
										<split pos="left">
											<output> 1.6772708 </output>
										</split>
										<split pos="right">
											<output> 0.08296849 </output>
										</split>
									</split>
								</split>
								<split pos="right">
									<output> 1.3247583 </output>
								</split>
							</split>
							<split pos="right">
								<output> -0.7195141 </output>
							</split>
						</split>
						<split pos="right">
							<output> 0.59215987 </output>
						</split>
					</split>
					<split pos="right">
						<feature> 167 </feature>
						<threshold> 0.439216 </threshold>
						<split pos="left">
							<output> 0.1660589 </output>
						</split>
						<split pos="right">
							<output> 0.93039715 </output>
						</split>
					</split>
				</split>
				<split pos="right">
					<output> 1.3537614 </output>
				</split>
			</split>
			<split pos="right">
				<output> -2.0223262 </output>
			</split>
		</split>
	</tree>
	<tree id="33" weight="0.1">
		<split>
			<feature> 225 </feature>
			<threshold> 0.313726 </threshold>
			<split pos="left">
				<feature> 8 </feature>
				<threshold> 0.8217424 </threshold>
				<split pos="left">
					<feature> 16 </feature>
					<threshold> 0.105882 </threshold>
					<split pos="left">
						<feature> 32 </feature>
						<threshold> 0.199601 </threshold>
						<split pos="left">
							<output> -0.6630686 </output>
						</split>
						<split pos="right">
							<output> 0.36552536 </output>
						</split>
					</split>
					<split pos="right">
						<feature> 161 </feature>
						<threshold> 0.419608 </threshold>
						<split pos="left">
							<feature> 99 </feature>
							<threshold> 0.75 </threshold>
							<split pos="left">
								<feature> 16 </feature>
								<threshold> 0.219608 </threshold>
								<split pos="left">
									<feature> 52 </feature>
									<threshold> 0.457506 </threshold>
									<split pos="left">
										<feature> 87 </feature>
										<threshold> 0.054902 </threshold>
										<split pos="left">
											<output> 0.9952027 </output>
										</split>
										<split pos="right">
											<output> -0.011805829 </output>
										</split>
									</split>
									<split pos="right">
										<output> 1.226858 </output>
									</split>
								</split>
								<split pos="right">
									<output> -0.44677812 </output>
								</split>
							</split>
							<split pos="right">
								<output> 1.284091 </output>
							</split>
						</split>
						<split pos="right">
							<output> 0.85056037 </output>
						</split>
					</split>
				</split>
				<split pos="right">
					<output> 0.43624926 </output>
				</split>
			</split>
			<split pos="right">
				<output> 0.7882702 </output>
			</split>
		</split>
	</tree>
	<tree id="34" weight="0.1">
		<split>
			<feature> 78 </feature>
			<threshold> 0.12699297 </threshold>
			<split pos="left">
				<output> -0.80181116 </output>
			</split>
			<split pos="right">
				<feature> 153 </feature>
				<threshold> 0.701961 </threshold>
				<split pos="left">
					<feature> 168 </feature>
					<threshold> 0.934896 </threshold>
					<split pos="left">
						<feature> 52 </feature>
						<threshold> 0.457506 </threshold>
						<split pos="left">
							<feature> 110 </feature>
							<threshold> 0.0 </threshold>
							<split pos="left">
								<feature> 122 </feature>
								<threshold> 0.8662521 </threshold>
								<split pos="left">
									<feature> 87 </feature>
									<threshold> 0.07451 </threshold>
									<split pos="left">
										<feature> 32 </feature>
										<threshold> 0.523169 </threshold>
										<split pos="left">
											<output> 0.077837415 </output>
										</split>
										<split pos="right">
											<output> 0.83144236 </output>
										</split>
									</split>
									<split pos="right">
										<output> -0.3816354 </output>
									</split>
								</split>
								<split pos="right">
									<output> 0.7208309 </output>
								</split>
							</split>
							<split pos="right">
								<output> 1.0260158 </output>
							</split>
						</split>
						<split pos="right">
							<output> -0.93604153 </output>
						</split>
					</split>
					<split pos="right">
						<output> 1.2655156 </output>
					</split>
				</split>
				<split pos="right">
					<feature> 220 </feature>
					<threshold> 0.4 </threshold>
					<split pos="left">
						<output> 0.24851847 </output>
					</split>
					<split pos="right">
						<output> 0.9600352 </output>
					</split>
				</split>
			</split>
		</split>
	</tree>
	<tree id="35" weight="0.1">
		<split>
			<feature> 225 </feature>
			<threshold> 0.313726 </threshold>
			<split pos="left">
				<feature> 166 </feature>
				<threshold> 0.007016 </threshold>
				<split pos="left">
					<output> -1.035949 </output>
				</split>
				<split pos="right">
					<feature> 8 </feature>
					<threshold> 0.8217424 </threshold>
					<split pos="left">
						<feature> 16 </feature>
						<threshold> 0.105882 </threshold>
						<split pos="left">
							<feature> 32 </feature>
							<threshold> 0.199601 </threshold>
							<split pos="left">
								<output> -0.5820427 </output>
							</split>
							<split pos="right">
								<output> 0.3581387 </output>
							</split>
						</split>
						<split pos="right">
							<feature> 161 </feature>
							<threshold> 0.419608 </threshold>
							<split pos="left">
								<feature> 10 </feature>
								<threshold> 0.04259028 </threshold>
								<split pos="left">
									<feature> 62 </feature>
									<threshold> 0.0 </threshold>
									<split pos="left">
										<feature> 234 </feature>
										<threshold> 0.5874741 </threshold>
										<split pos="left">
											<output> -0.124412864 </output>
										</split>
										<split pos="right">
											<output> 0.6765441 </output>
										</split>
									</split>
									<split pos="right">
										<output> -0.91578877 </output>
									</split>
								</split>
								<split pos="right">
									<output> 0.43684813 </output>
								</split>
							</split>
							<split pos="right">
								<output> 0.8239794 </output>
							</split>
						</split>
					</split>
					<split pos="right">
						<output> 0.4716651 </output>
					</split>
				</split>
			</split>
			<split pos="right">
				<output> 0.69986373 </output>
			</split>
		</split>
	</tree>
	<tree id="36" weight="0.1">
		<split>
			<feature> 57 </feature>
			<threshold> 0.09749997 </threshold>
			<split pos="left">
				<output> -0.32034227 </output>
			</split>
			<split pos="right">
				<feature> 148 </feature>
				<threshold> 0.843137 </threshold>
				<split pos="left">
					<feature> 162 </feature>
					<threshold> 0.075672 </threshold>
					<split pos="left">
						<feature> 167 </feature>
						<threshold> 0.447059 </threshold>
						<split pos="left">
							<feature> 59 </feature>
							<threshold> 0.0 </threshold>
							<split pos="left">
								<feature> 106 </feature>
								<threshold> 0.72549 </threshold>
								<split pos="left">
									<output> -0.5640225 </output>
								</split>
								<split pos="right">
									<feature> 218 </feature>
									<threshold> 0.715702 </threshold>
									<split pos="left">
										<feature> 212 </feature>
										<threshold> 0.180392 </threshold>
										<split pos="left">
											<output> -1.1561202 </output>
										</split>
										<split pos="right">
											<feature> 87 </feature>
											<threshold> 0.0 </threshold>
											<split pos="left">
												<output> 0.8907257 </output>
											</split>
											<split pos="right">
												<output> 0.15276085 </output>
											</split>
										</split>
									</split>
									<split pos="right">
										<output> -3.3069947 </output>
									</split>
								</split>
							</split>
							<split pos="right">
								<output> 0.5611754 </output>
							</split>
						</split>
						<split pos="right">
							<output> 0.56346035 </output>
						</split>
					</split>
					<split pos="right">
						<output> 1.0093184 </output>
					</split>
				</split>
				<split pos="right">
					<output> 0.7636342 </output>
				</split>
			</split>
		</split>
	</tree>
	<tree id="37" weight="0.1">
		<split>
			<feature> 132 </feature>
			<threshold> 0.0 </threshold>
			<split pos="left">
				<feature> 39 </feature>
				<threshold> 0.160784 </threshold>
				<split pos="left">
					<feature> 29 </feature>
					<threshold> 0.8987366 </threshold>
					<split pos="left">
						<feature> 96 </feature>
						<threshold> 0.078431 </threshold>
						<split pos="left">
							<feature> 205 </feature>
							<threshold> 0.022535 </threshold>
							<split pos="left">
								<feature> 48 </feature>
								<threshold> 0.223529 </threshold>
								<split pos="left">
									<feature> 149 </feature>
									<threshold> 0.360784 </threshold>
									<split pos="left">
										<feature> 55 </feature>
										<threshold> 0.556863 </threshold>
										<split pos="left">
											<feature> 195 </feature>
											<threshold> 0.893315 </threshold>
											<split pos="left">
												<output> -0.045692857 </output>
											</split>
											<split pos="right">
												<output> 0.9139193 </output>
											</split>
										</split>
										<split pos="right">
											<output> 0.6981513 </output>
										</split>
									</split>
									<split pos="right">
										<output> 1.0298724 </output>
									</split>
								</split>
								<split pos="right">
									<output> -0.32176092 </output>
								</split>
							</split>
							<split pos="right">
								<output> 0.8862294 </output>
							</split>
						</split>
						<split pos="right">
							<output> 1.2794453 </output>
						</split>
					</split>
					<split pos="right">
						<output> 0.8083797 </output>
					</split>
				</split>
				<split pos="right">
					<output> -0.77823925 </output>
				</split>
			</split>
			<split pos="right">
				<output> 0.4764283 </output>
			</split>
		</split>
	</tree>
	<tree id="38" weight="0.1">
		<split>
			<feature> 130 </feature>
			<threshold> 0.71835697 </threshold>
			<split pos="left">
				<feature> 16 </feature>
				<threshold> 0.105882 </threshold>
				<split pos="left">
					<output> -0.41580904 </output>
				</split>
				<split pos="right">
					<feature> 54 </feature>
					<threshold> 0.79637116 </threshold>
					<split pos="left">
						<feature> 52 </feature>
						<threshold> 0.457506 </threshold>
						<split pos="left">
							<feature> 9 </feature>
							<threshold> 0.6983338 </threshold>
							<split pos="left">
								<feature> 99 </feature>
								<threshold> 0.666667 </threshold>
								<split pos="left">
									<feature> 114 </feature>
									<threshold> 0.4264556 </threshold>
									<split pos="left">
										<feature> 135 </feature>
										<threshold> 0.223529 </threshold>
										<split pos="left">
											<output> 0.21166813 </output>
										</split>
										<split pos="right">
											<output> -0.40622047 </output>
										</split>
									</split>
									<split pos="right">
										<output> 1.1548876 </output>
									</split>
								</split>
								<split pos="right">
									<output> 1.2137309 </output>
								</split>
							</split>
							<split pos="right">
								<output> 0.9736787 </output>
							</split>
						</split>
						<split pos="right">
							<output> -1.3364483 </output>
						</split>
					</split>
					<split pos="right">
						<output> 0.80383456 </output>
					</split>
				</split>
			</split>
			<split pos="right">
				<feature> 55 </feature>
				<threshold> 0.141176 </threshold>
				<split pos="left">
					<output> 0.7860818 </output>
				</split>
				<split pos="right">
					<output> -0.0611696 </output>
				</split>
			</split>
		</split>
	</tree>
	<tree id="39" weight="0.1">
		<split>
			<feature> 78 </feature>
			<threshold> 0.12699297 </threshold>
			<split pos="left">
				<output> -0.7524321 </output>
			</split>
			<split pos="right">
				<feature> 162 </feature>
				<threshold> 0.013426 </threshold>
				<split pos="left">
					<feature> 153 </feature>
					<threshold> 0.701961 </threshold>
					<split pos="left">
						<feature> 132 </feature>
						<threshold> 0.015788 </threshold>
						<split pos="left">
							<feature> 106 </feature>
							<threshold> 0.72549 </threshold>
							<split pos="left">
								<feature> 52 </feature>
								<threshold> 0.031099 </threshold>
								<split pos="left">
									<output> 1.2722558 </output>
								</split>
								<split pos="right">
									<output> -0.41261163 </output>
								</split>
							</split>
							<split pos="right">
								<feature> 186 </feature>
								<threshold> 0.831373 </threshold>
								<split pos="left">
									<feature> 130 </feature>
									<threshold> 0.71098924 </threshold>
									<split pos="left">
										<output> 0.015171128 </output>
									</split>
									<split pos="right">
										<output> 0.5609025 </output>
									</split>
								</split>
								<split pos="right">
									<output> -0.93101305 </output>
								</split>
							</split>
						</split>
						<split pos="right">
							<output> 0.6953468 </output>
						</split>
					</split>
					<split pos="right">
						<feature> 153 </feature>
						<threshold> 0.745098 </threshold>
						<split pos="left">
							<output> 0.8397613 </output>
						</split>
						<split pos="right">
							<output> 0.026141262 </output>
						</split>
					</split>
				</split>
				<split pos="right">
					<output> 0.5464822 </output>
				</split>
			</split>
		</split>
	</tree>
	<tree id="40" weight="0.1">
		<split>
			<feature> 168 </feature>
			<threshold> 0.934896 </threshold>
			<split pos="left">
				<feature> 154 </feature>
				<threshold> 0.0 </threshold>
				<split pos="left">
					<feature> 234 </feature>
					<threshold> 0.6788087 </threshold>
					<split pos="left">
						<feature> 87 </feature>
						<threshold> 0.188235 </threshold>
						<split pos="left">
							<feature> 87 </feature>
							<threshold> 0.180392 </threshold>
							<split pos="left">
								<feature> 8 </feature>
								<threshold> 0.30768517 </threshold>
								<split pos="left">
									<output> -0.8488507 </output>
								</split>
								<split pos="right">
									<feature> 52 </feature>
									<threshold> 0.457506 </threshold>
									<split pos="left">
										<feature> 106 </feature>
										<threshold> 0.215686 </threshold>
										<split pos="left">
											<output> 0.84631145 </output>
										</split>
										<split pos="right">
											<feature> 129 </feature>
											<threshold> 0.341176 </threshold>
											<split pos="left">
												<output> 0.03944328 </output>
											</split>
											<split pos="right">
												<output> -0.6313703 </output>
											</split>
										</split>
									</split>
									<split pos="right">
										<output> 0.85833544 </output>
									</split>
								</split>
							</split>
							<split pos="right">
								<output> 1.8669661 </output>
							</split>
						</split>
						<split pos="right">
							<output> -0.88789207 </output>
						</split>
					</split>
					<split pos="right">
						<output> 1.0780782 </output>
					</split>
				</split>
				<split pos="right">
					<output> 0.23784034 </output>
				</split>
			</split>
			<split pos="right">
				<output> 1.1121752 </output>
			</split>
		</split>
	</tree>
	<tree id="41" weight="0.1">
		<split>
			<feature> 130 </feature>
			<threshold> 0.71835697 </threshold>
			<split pos="left">
				<feature> 212 </feature>
				<threshold> 0.4 </threshold>
				<split pos="left">
					<output> -0.50070816 </output>
				</split>
				<split pos="right">
					<feature> 153 </feature>
					<threshold> 0.690196 </threshold>
					<split pos="left">
						<feature> 5 </feature>
						<threshold> 0.18 </threshold>
						<split pos="left">
							<feature> 106 </feature>
							<threshold> 0.945098 </threshold>
							<split pos="left">
								<output> -0.41146025 </output>
							</split>
							<split pos="right">
								<output> 1.1890388 </output>
							</split>
						</split>
						<split pos="right">
							<output> 0.3911116 </output>
						</split>
					</split>
					<split pos="right">
						<feature> 153 </feature>
						<threshold> 0.717647 </threshold>
						<split pos="left">
							<output> 1.1151376 </output>
						</split>
						<split pos="right">
							<output> 0.23040946 </output>
						</split>
					</split>
				</split>
			</split>
			<split pos="right">
				<feature> 126 </feature>
				<threshold> 0.0 </threshold>
				<split pos="left">
					<feature> 132 </feature>
					<threshold> 0.476125 </threshold>
					<split pos="left">
						<feature> 162 </feature>
						<threshold> 0.00324 </threshold>
						<split pos="left">
							<output> -0.18935616 </output>
						</split>
						<split pos="right">
							<output> 0.6339323 </output>
						</split>
					</split>
					<split pos="right">
						<output> 0.94534975 </output>
					</split>
				</split>
				<split pos="right">
					<output> 0.9291582 </output>
				</split>
			</split>
		</split>
	</tree>
	<tree id="42" weight="0.1">
		<split>
			<feature> 234 </feature>
			<threshold> 0.44286215 </threshold>
			<split pos="left">
				<output> 0.6120341 </output>
			</split>
			<split pos="right">
				<feature> 234 </feature>
				<threshold> 0.5174509 </threshold>
				<split pos="left">
					<feature> 12 </feature>
					<threshold> 0.9877765 </threshold>
					<split pos="left">
						<output> -0.40295306 </output>
					</split>
					<split pos="right">
						<output> 2.5232558 </output>
					</split>
				</split>
				<split pos="right">
					<feature> 234 </feature>
					<threshold> 0.52506214 </threshold>
					<split pos="left">
						<output> 0.9701893 </output>
					</split>
					<split pos="right">
						<feature> 87 </feature>
						<threshold> 0.054902 </threshold>
						<split pos="left">
							<output> 0.5239661 </output>
						</split>
						<split pos="right">
							<feature> 225 </feature>
							<threshold> 0.313726 </threshold>
							<split pos="left">
								<feature> 5 </feature>
								<threshold> 0.20202 </threshold>
								<split pos="left">
									<feature> 148 </feature>
									<threshold> 0.819608 </threshold>
									<split pos="left">
										<feature> 32 </feature>
										<threshold> 0.233178 </threshold>
										<split pos="left">
											<output> -0.6652297 </output>
										</split>
										<split pos="right">
											<output> 0.04128725 </output>
										</split>
									</split>
									<split pos="right">
										<output> 0.7595031 </output>
									</split>
								</split>
								<split pos="right">
									<output> 0.2581465 </output>
								</split>
							</split>
							<split pos="right">
								<output> 0.82324517 </output>
							</split>
						</split>
					</split>
				</split>
			</split>
		</split>
	</tree>
	<tree id="43" weight="0.1">
		<split>
			<feature> 234 </feature>
			<threshold> 0.44286215 </threshold>
			<split pos="left">
				<output> 0.55344766 </output>
			</split>
			<split pos="right">
				<feature> 3 </feature>
				<threshold> 0.0 </threshold>
				<split pos="left">
					<feature> 58 </feature>
					<threshold> 0.012173219 </threshold>
					<split pos="left">
						<output> -0.5319535 </output>
					</split>
					<split pos="right">
						<output> 0.13488287 </output>
					</split>
				</split>
				<split pos="right">
					<feature> 225 </feature>
					<threshold> 0.313726 </threshold>
					<split pos="left">
						<feature> 86 </feature>
						<threshold> 0.0 </threshold>
						<split pos="left">
							<output> 0.6162125 </output>
						</split>
						<split pos="right">
							<feature> 132 </feature>
							<threshold> 0.0 </threshold>
							<split pos="left">
								<feature> 69 </feature>
								<threshold> 0.2527606 </threshold>
								<split pos="left">
									<feature> 69 </feature>
									<threshold> 0.21979181 </threshold>
									<split pos="left">
										<feature> 154 </feature>
										<threshold> 0.090196 </threshold>
										<split pos="left">
											<output> -0.17195508 </output>
										</split>
										<split pos="right">
											<output> 0.7996761 </output>
										</split>
									</split>
									<split pos="right">
										<output> 1.0899416 </output>
									</split>
								</split>
								<split pos="right">
									<output> -0.7999553 </output>
								</split>
							</split>
							<split pos="right">
								<output> 0.7389235 </output>
							</split>
						</split>
					</split>
					<split pos="right">
						<output> 1.1570896 </output>
					</split>
				</split>
			</split>
		</split>
	</tree>
	<tree id="44" weight="0.1">
		<split>
			<feature> 24 </feature>
			<threshold> 0.929412 </threshold>
			<split pos="left">
				<output> 0.6554333 </output>
			</split>
			<split pos="right">
				<feature> 179 </feature>
				<threshold> 0.988235 </threshold>
				<split pos="left">
					<feature> 161 </feature>
					<threshold> 0.435294 </threshold>
					<split pos="left">
						<feature> 3 </feature>
						<threshold> 0.0 </threshold>
						<split pos="left">
							<feature> 171 </feature>
							<threshold> 0.0 </threshold>
							<split pos="left">
								<output> -0.36897913 </output>
							</split>
							<split pos="right">
								<output> 1.0729598 </output>
							</split>
						</split>
						<split pos="right">
							<feature> 225 </feature>
							<threshold> 0.313726 </threshold>
							<split pos="left">
								<feature> 86 </feature>
								<threshold> 0.0 </threshold>
								<split pos="left">
									<output> 0.61429495 </output>
								</split>
								<split pos="right">
									<feature> 53 </feature>
									<threshold> 0.953125 </threshold>
									<split pos="left">
										<feature> 179 </feature>
										<threshold> 0.776471 </threshold>
										<split pos="left">
											<output> -0.17202605 </output>
										</split>
										<split pos="right">
											<output> 0.52892274 </output>
										</split>
									</split>
									<split pos="right">
										<output> 1.1626225 </output>
									</split>
								</split>
							</split>
							<split pos="right">
								<output> 1.1687727 </output>
							</split>
						</split>
					</split>
					<split pos="right">
						<output> 0.39500353 </output>
					</split>
				</split>
				<split pos="right">
					<output> -1.6987152 </output>
				</split>
			</split>
		</split>
	</tree>
	<tree id="45" weight="0.1">
		<split>
			<feature> 130 </feature>
			<threshold> 0.71835697 </threshold>
			<split pos="left">
				<feature> 212 </feature>
				<threshold> 0.4 </threshold>
				<split pos="left">
					<output> -0.46706557 </output>
				</split>
				<split pos="right">
					<feature> 153 </feature>
					<threshold> 0.701961 </threshold>
					<split pos="left">
						<feature> 5 </feature>
						<threshold> 0.18 </threshold>
						<split pos="left">
							<feature> 106 </feature>
							<threshold> 0.945098 </threshold>
							<split pos="left">
								<feature> 173 </feature>
								<threshold> 0.6 </threshold>
								<split pos="left">
									<output> 1.0287482 </output>
								</split>
								<split pos="right">
									<feature> 234 </feature>
									<threshold> 0.46265092 </threshold>
									<split pos="left">
										<output> 0.45099214 </output>
									</split>
									<split pos="right">
										<output> -0.55981565 </output>
									</split>
								</split>
							</split>
							<split pos="right">
								<output> 1.1253093 </output>
							</split>
						</split>
						<split pos="right">
							<output> 0.35949916 </output>
						</split>
					</split>
					<split pos="right">
						<output> 0.37804446 </output>
					</split>
				</split>
			</split>
			<split pos="right">
				<feature> 55 </feature>
				<threshold> 0.156863 </threshold>
				<split pos="left">
					<feature> 69 </feature>
					<threshold> 0.12454869 </threshold>
					<split pos="left">
						<output> 1.0508894 </output>
					</split>
					<split pos="right">
						<output> 0.5663359 </output>
					</split>
				</split>
				<split pos="right">
					<output> -0.07394963 </output>
				</split>
			</split>
		</split>
	</tree>
	<tree id="46" weight="0.1">
		<split>
			<feature> 130 </feature>
			<threshold> 0.71835697 </threshold>
			<split pos="left">
				<feature> 212 </feature>
				<threshold> 0.4 </threshold>
				<split pos="left">
					<output> -0.46844643 </output>
				</split>
				<split pos="right">
					<feature> 234 </feature>
					<threshold> 0.605741 </threshold>
					<split pos="left">
						<feature> 73 </feature>
						<threshold> 0.0 </threshold>
						<split pos="left">
							<feature> 99 </feature>
							<threshold> 0.536316 </threshold>
							<split pos="left">
								<feature> 52 </feature>
								<threshold> 0.457506 </threshold>
								<split pos="left">
									<feature> 48 </feature>
									<threshold> 0.764706 </threshold>
									<split pos="left">
										<feature> 114 </feature>
										<threshold> 0.4449972 </threshold>
										<split pos="left">
											<output> -0.042377915 </output>
										</split>
										<split pos="right">
											<output> 1.1520641 </output>
										</split>
									</split>
									<split pos="right">
										<output> -1.7104683 </output>
									</split>
								</split>
								<split pos="right">
									<output> 0.6515395 </output>
								</split>
							</split>
							<split pos="right">
								<output> 0.8813966 </output>
							</split>
						</split>
						<split pos="right">
							<output> -0.5870705 </output>
						</split>
					</split>
					<split pos="right">
						<output> 0.5961268 </output>
					</split>
				</split>
			</split>
			<split pos="right">
				<feature> 126 </feature>
				<threshold> 0.0 </threshold>
				<split pos="left">
					<output> 0.08427581 </output>
				</split>
				<split pos="right">
					<output> 0.9033948 </output>
				</split>
			</split>
		</split>
	</tree>
	<tree id="47" weight="0.1">
		<split>
			<feature> 130 </feature>
			<threshold> 0.71835697 </threshold>
			<split pos="left">
				<feature> 212 </feature>
				<threshold> 0.4 </threshold>
				<split pos="left">
					<output> -0.4250034 </output>
				</split>
				<split pos="right">
					<feature> 205 </feature>
					<threshold> 0.018298 </threshold>
					<split pos="left">
						<feature> 153 </feature>
						<threshold> 0.690196 </threshold>
						<split pos="left">
							<feature> 5 </feature>
							<threshold> 0.18 </threshold>
							<split pos="left">
								<feature> 106 </feature>
								<threshold> 0.945098 </threshold>
								<split pos="left">
									<output> -0.3877152 </output>
								</split>
								<split pos="right">
									<output> 1.1054212 </output>
								</split>
							</split>
							<split pos="right">
								<output> 0.24090388 </output>
							</split>
						</split>
						<split pos="right">
							<output> 0.328933 </output>
						</split>
					</split>
					<split pos="right">
						<output> 1.334036 </output>
					</split>
				</split>
			</split>
			<split pos="right">
				<feature> 126 </feature>
				<threshold> 0.0 </threshold>
				<split pos="left">
					<feature> 243 </feature>
					<threshold> 0.870588 </threshold>
					<split pos="left">
						<feature> 55 </feature>
						<threshold> 0.156863 </threshold>
						<split pos="left">
							<output> 0.49657497 </output>
						</split>
						<split pos="right">
							<output> -0.24519213 </output>
						</split>
					</split>
					<split pos="right">
						<output> 1.2168105 </output>
					</split>
				</split>
				<split pos="right">
					<output> 0.8661653 </output>
				</split>
			</split>
		</split>
	</tree>
	<tree id="48" weight="0.1">
		<split>
			<feature> 78 </feature>
			<threshold> 0.15687361 </threshold>
			<split pos="left">
				<output> -0.5468418 </output>
			</split>
			<split pos="right">
				<feature> 24 </feature>
				<threshold> 0.929412 </threshold>
				<split pos="left">
					<output> 0.8098622 </output>
				</split>
				<split pos="right">
					<feature> 29 </feature>
					<threshold> 0.8909553 </threshold>
					<split pos="left">
						<feature> 39 </feature>
						<threshold> 0.34902 </threshold>
						<split pos="left">
							<feature> 29 </feature>
							<threshold> 0.82481456 </threshold>
							<split pos="left">
								<feature> 4 </feature>
								<threshold> 0.870669 </threshold>
								<split pos="left">
									<feature> 220 </feature>
									<threshold> 0.4 </threshold>
									<split pos="left">
										<feature> 29 </feature>
										<threshold> 0.8209239 </threshold>
										<split pos="left">
											<feature> 166 </feature>
											<threshold> 0.064232 </threshold>
											<split pos="left">
												<output> 0.15429115 </output>
											</split>
											<split pos="right">
												<output> -0.306091 </output>
											</split>
										</split>
										<split pos="right">
											<output> 1.0588769 </output>
										</split>
									</split>
									<split pos="right">
										<output> 0.64512235 </output>
									</split>
								</split>
								<split pos="right">
									<output> 1.1600934 </output>
								</split>
							</split>
							<split pos="right">
								<output> -0.7709553 </output>
							</split>
						</split>
						<split pos="right">
							<output> 1.2379209 </output>
						</split>
					</split>
					<split pos="right">
						<output> 0.5307571 </output>
					</split>
				</split>
			</split>
		</split>
	</tree>
	<tree id="49" weight="0.1">
		<split>
			<feature> 94 </feature>
			<threshold> 0.666667 </threshold>
			<split pos="left">
				<output> -0.30334115 </output>
			</split>
			<split pos="right">
				<feature> 55 </feature>
				<threshold> 0.188235 </threshold>
				<split pos="left">
					<feature> 39 </feature>
					<threshold> 0.05098 </threshold>
					<split pos="left">
						<feature> 4 </feature>
						<threshold> 0.870669 </threshold>
						<split pos="left">
							<feature> 166 </feature>
							<threshold> 0.014453 </threshold>
							<split pos="left">
								<output> 1.2040235 </output>
							</split>
							<split pos="right">
								<output> 0.35635307 </output>
							</split>
						</split>
						<split pos="right">
							<output> 1.4354917 </output>
						</split>
					</split>
					<split pos="right">
						<output> -0.23628798 </output>
					</split>
				</split>
				<split pos="right">
					<feature> 162 </feature>
					<threshold> 0.022826 </threshold>
					<split pos="left">
						<feature> 148 </feature>
						<threshold> 0.827451 </threshold>
						<split pos="left">
							<feature> 5 </feature>
							<threshold> 0.292929 </threshold>
							<split pos="left">
								<feature> 225 </feature>
								<threshold> 0.313726 </threshold>
								<split pos="left">
									<output> -0.42673734 </output>
								</split>
								<split pos="right">
									<output> 0.65113384 </output>
								</split>
							</split>
							<split pos="right">
								<output> 0.24885556 </output>
							</split>
						</split>
						<split pos="right">
							<output> 0.8010214 </output>
						</split>
					</split>
					<split pos="right">
						<output> 0.5696183 </output>
					</split>
				</split>
			</split>
		</split>
	</tree>
	<tree id="50" weight="0.1">
		<split>
			<feature> 12 </feature>
			<threshold> 0.23305407 </threshold>
			<split pos="left">
				<output> -0.95361364 </output>
			</split>
			<split pos="right">
				<feature> 166 </feature>
				<threshold> 0.007016 </threshold>
				<split pos="left">
					<output> -0.77276295 </output>
				</split>
				<split pos="right">
					<feature> 166 </feature>
					<threshold> 0.010388 </threshold>
					<split pos="left">
						<output> 0.95128286 </output>
					</split>
					<split pos="right">
						<feature> 4 </feature>
						<threshold> 0.870669 </threshold>
						<split pos="left">
							<feature> 59 </feature>
							<threshold> 0.0 </threshold>
							<split pos="left">
								<feature> 218 </feature>
								<threshold> 0.731324 </threshold>
								<split pos="left">
									<feature> 234 </feature>
									<threshold> 0.44286215 </threshold>
									<split pos="left">
										<output> 0.6123778 </output>
									</split>
									<split pos="right">
										<feature> 148 </feature>
										<threshold> 0.882353 </threshold>
										<split pos="left">
											<feature> 39 </feature>
											<threshold> 0.34902 </threshold>
											<split pos="left">
												<output> -0.05867119 </output>
											</split>
											<split pos="right">
												<output> 1.2176349 </output>
											</split>
										</split>
										<split pos="right">
											<output> -1.457931 </output>
										</split>
									</split>
								</split>
								<split pos="right">
									<output> -3.0716424 </output>
								</split>
							</split>
							<split pos="right">
								<output> 0.4347045 </output>
							</split>
						</split>
						<split pos="right">
							<output> 0.61912817 </output>
						</split>
					</split>
				</split>
			</split>
		</split>
	</tree>
	<tree id="51" weight="0.1">
		<split>
			<feature> 154 </feature>
			<threshold> 0.772549 </threshold>
			<split pos="left">
				<feature> 44 </feature>
				<threshold> 0.00863 </threshold>
				<split pos="left">
					<feature> 188 </feature>
					<threshold> 0.009762 </threshold>
					<split pos="left">
						<feature> 3 </feature>
						<threshold> 0.0 </threshold>
						<split pos="left">
							<feature> 161 </feature>
							<threshold> 0.45098 </threshold>
							<split pos="left">
								<output> -0.3547047 </output>
							</split>
							<split pos="right">
								<output> 0.5770885 </output>
							</split>
						</split>
						<split pos="right">
							<feature> 225 </feature>
							<threshold> 0.313726 </threshold>
							<split pos="left">
								<feature> 86 </feature>
								<threshold> 0.0 </threshold>
								<split pos="left">
									<output> 0.49421176 </output>
								</split>
								<split pos="right">
									<feature> 154 </feature>
									<threshold> 0.090196 </threshold>
									<split pos="left">
										<feature> 179 </feature>
										<threshold> 0.835294 </threshold>
										<split pos="left">
											<output> -0.19932246 </output>
										</split>
										<split pos="right">
											<output> 0.8140057 </output>
										</split>
									</split>
									<split pos="right">
										<output> 0.72064936 </output>
									</split>
								</split>
							</split>
							<split pos="right">
								<output> 1.1242839 </output>
							</split>
						</split>
					</split>
					<split pos="right">
						<output> 1.0884308 </output>
					</split>
				</split>
				<split pos="right">
					<output> 0.4015012 </output>
				</split>
			</split>
			<split pos="right">
				<output> -1.4938996 </output>
			</split>
		</split>
	</tree>
	<tree id="52" weight="0.1">
		<split>
			<feature> 78 </feature>
			<threshold> 0.12699297 </threshold>
			<split pos="left">
				<output> -0.67156947 </output>
			</split>
			<split pos="right">
				<feature> 14 </feature>
				<threshold> 0.8585133 </threshold>
				<split pos="left">
					<feature> 87 </feature>
					<threshold> 0.05098 </threshold>
					<split pos="left">
						<output> 0.29189193 </output>
					</split>
					<split pos="right">
						<feature> 78 </feature>
						<threshold> 0.13446313 </threshold>
						<split pos="left">
							<output> 1.2154003 </output>
						</split>
						<split pos="right">
							<feature> 148 </feature>
							<threshold> 0.831373 </threshold>
							<split pos="left">
								<feature> 186 </feature>
								<threshold> 0.843137 </threshold>
								<split pos="left">
									<feature> 55 </feature>
									<threshold> 0.972549 </threshold>
									<split pos="left">
										<feature> 39 </feature>
										<threshold> 0.152941 </threshold>
										<split pos="left">
											<feature> 32 </feature>
											<threshold> 0.541796 </threshold>
											<split pos="left">
												<output> -0.027029868 </output>
											</split>
											<split pos="right">
												<output> 0.70441633 </output>
											</split>
										</split>
										<split pos="right">
											<output> -0.9466646 </output>
										</split>
									</split>
									<split pos="right">
										<output> 0.7644293 </output>
									</split>
								</split>
								<split pos="right">
									<output> -0.5524974 </output>
								</split>
							</split>
							<split pos="right">
								<output> 0.533607 </output>
							</split>
						</split>
					</split>
				</split>
				<split pos="right">
					<output> 0.9047022 </output>
				</split>
			</split>
		</split>
	</tree>
	<tree id="53" weight="0.1">
		<split>
			<feature> 32 </feature>
			<threshold> 0.299401 </threshold>
			<split pos="left">
				<feature> 125 </feature>
				<threshold> 0.0 </threshold>
				<split pos="left">
					<output> -0.4446713 </output>
				</split>
				<split pos="right">
					<feature> 161 </feature>
					<threshold> 0.509804 </threshold>
					<split pos="left">
						<feature> 168 </feature>
						<threshold> 0.934167 </threshold>
						<split pos="left">
							<feature> 234 </feature>
							<threshold> 0.44286215 </threshold>
							<split pos="left">
								<output> 0.6350118 </output>
							</split>
							<split pos="right">
								<feature> 167 </feature>
								<threshold> 0.478431 </threshold>
								<split pos="left">
									<feature> 32 </feature>
									<threshold> 0.289975 </threshold>
									<split pos="left">
										<feature> 32 </feature>
										<threshold> 0.289256 </threshold>
										<split pos="left">
											<feature> 65 </feature>
											<threshold> 0.3 </threshold>
											<split pos="left">
												<output> -0.08480344 </output>
											</split>
											<split pos="right">
												<output> 0.44763675 </output>
											</split>
										</split>
										<split pos="right">
											<output> 1.0776572 </output>
										</split>
									</split>
									<split pos="right">
										<output> -2.2090228 </output>
									</split>
								</split>
								<split pos="right">
									<output> -1.1242901 </output>
								</split>
							</split>
						</split>
						<split pos="right">
							<output> 1.2185633 </output>
						</split>
					</split>
					<split pos="right">
						<output> 0.6331891 </output>
					</split>
				</split>
			</split>
			<split pos="right">
				<output> 0.2607464 </output>
			</split>
		</split>
	</tree>
	<tree id="54" weight="0.1">
		<split>
			<feature> 130 </feature>
			<threshold> 0.71835697 </threshold>
			<split pos="left">
				<feature> 73 </feature>
				<threshold> 0.0 </threshold>
				<split pos="left">
					<feature> 220 </feature>
					<threshold> 0.4 </threshold>
					<split pos="left">
						<feature> 114 </feature>
						<threshold> 0.41056278 </threshold>
						<split pos="left">
							<feature> 96 </feature>
							<threshold> 0.003922 </threshold>
							<split pos="left">
								<output> -2.0185025 </output>
							</split>
							<split pos="right">
								<feature> 99 </feature>
								<threshold> 0.666667 </threshold>
								<split pos="left">
									<feature> 118 </feature>
									<threshold> 0.0 </threshold>
									<split pos="left">
										<feature> 16 </feature>
										<threshold> 0.031373 </threshold>
										<split pos="left">
											<output> -0.617041 </output>
										</split>
										<split pos="right">
											<output> -0.052248877 </output>
										</split>
									</split>
									<split pos="right">
										<output> 0.5536899 </output>
									</split>
								</split>
								<split pos="right">
									<output> 1.1230394 </output>
								</split>
							</split>
						</split>
						<split pos="right">
							<output> 1.0725551 </output>
						</split>
					</split>
					<split pos="right">
						<output> 0.68786925 </output>
					</split>
				</split>
				<split pos="right">
					<output> -0.3971839 </output>
				</split>
			</split>
			<split pos="right">
				<feature> 55 </feature>
				<threshold> 0.141176 </threshold>
				<split pos="left">
					<output> 0.60727364 </output>
				</split>
				<split pos="right">
					<output> -0.09481062 </output>
				</split>
			</split>
		</split>
	</tree>
	<tree id="55" weight="0.1">
		<split>
			<feature> 161 </feature>
			<threshold> 0.784314 </threshold>
			<split pos="left">
				<feature> 161 </feature>
				<threshold> 0.501961 </threshold>
				<split pos="left">
					<feature> 168 </feature>
					<threshold> 0.934167 </threshold>
					<split pos="left">
						<feature> 32 </feature>
						<threshold> 0.299401 </threshold>
						<split pos="left">
							<feature> 125 </feature>
							<threshold> 0.0 </threshold>
							<split pos="left">
								<output> -0.44597822 </output>
							</split>
							<split pos="right">
								<feature> 234 </feature>
								<threshold> 0.44286215 </threshold>
								<split pos="left">
									<output> 0.60524887 </output>
								</split>
								<split pos="right">
									<feature> 186 </feature>
									<threshold> 0.917647 </threshold>
									<split pos="left">
										<feature> 28 </feature>
										<threshold> 0.5 </threshold>
										<split pos="left">
											<feature> 96 </feature>
											<threshold> 0.031373 </threshold>
											<split pos="left">
												<output> 0.052085057 </output>
											</split>
											<split pos="right">
												<output> -0.49236512 </output>
											</split>
										</split>
										<split pos="right">
											<output> 0.6064099 </output>
										</split>
									</split>
